34 128
34 -0.092092 -0.051199 0.066166 0.062252 0.058388 -0.105133 0.093897 0.007635 -0.047315 0.007067 -0.000898 0.065765 0.038967 -0.257366 -0.092482 -0.083209 0.009247 -0.060392 -0.018830 0.086385 0.137527 0.026270 0.069898 0.049756 -0.046638 -0.104563 -0.094889 0.041862 0.063346 0.205180 -0.012439 0.081525 -0.133749 0.134301 -0.258998 -0.161781 0.168229 0.148508 -0.046721 -0.004252 -0.195115 0.080474 0.130088 0.063126 -0.118430 0.042071 0.038877 -0.141396 -0.139762 0.022633 0.043572 0.154849 0.042351 0.029717 -0.242284 -0.132888 -0.110149 0.005033 -0.024867 0.061746 0.074038 -0.079368 -0.122663 0.123919 0.085689 -0.190479 0.028272 -0.029448 -0.034456 -0.098338 0.104137 -0.017075 0.092424 0.076391 -0.014706 -0.052652 0.096127 0.046131 0.079946 0.060798 0.021653 -0.187470 -0.039327 -0.227123 -0.002634 0.230254 -0.079139 -0.050250 -0.057494 -0.102690 0.052994 0.220305 0.016032 -0.061070 -0.138279 0.219643 -0.202323 -0.014537 0.105669 -0.025232 -0.252055 -0.031547 -0.129285 -0.032954 0.030608 0.028184 0.170498 0.091308 -0.005610 -0.077875 0.055857 -0.071971 0.050779 -0.033674 -0.011079 0.089131 -0.081865 0.180188 -0.067025 0.022397 -0.028228 -0.134309 -0.040719 -0.216684 -0.046501 0.151536 -0.004719 0.044415
1 -0.049536 -0.144578 0.059744 0.087996 0.010750 -0.168573 0.101214 0.173861 0.058285 0.007404 0.026460 0.103267 0.087223 -0.265841 -0.027532 -0.134426 -0.011395 -0.133410 -0.000481 0.023868 0.156453 -0.033555 0.066954 0.031684 0.059286 -0.039187 -0.078834 0.054101 0.134084 0.188072 -0.054583 0.024837 -0.132551 0.113013 -0.199593 -0.202682 0.186489 0.120424 -0.046564 -0.004227 -0.121063 -0.042445 0.151572 0.177913 -0.168628 0.041269 0.052266 -0.100184 -0.056338 0.041252 -0.082001 0.081301 0.052211 0.088235 -0.242418 -0.148764 -0.101412 0.057374 0.009090 -0.007417 0.141419 -0.088739 -0.034477 0.108998 0.007394 -0.047324 -0.008845 0.038240 -0.019875 -0.133420 -0.030618 0.013684 0.058243 -0.014061 0.084259 0.022525 0.114651 -0.005069 0.064776 -0.080950 -0.009341 -0.150796 -0.034283 -0.088018 -0.078681 0.096520 0.084362 -0.062740 0.028760 -0.024571 0.098070 0.098613 0.015587 -0.090879 -0.185930 0.122948 -0.098707 -0.180408 0.105390 0.101400 -0.167363 -0.036192 -0.127434 -0.006636 -0.036966 -0.005078 0.151536 0.078556 -0.023635 -0.089434 0.031885 -0.000829 0.112727 0.024723 -0.127242 0.062473 -0.048113 0.209817 -0.110727 -0.099562 0.014444 -0.040813 0.078620 -0.201214 -0.179197 0.025138 0.070244 0.140819
33 -0.097167 -0.041663 0.066666 0.063905 0.066393 -0.102267 0.092184 -0.006925 -0.055656 0.005385 0.002698 0.064583 0.032902 -0.269666 -0.096205 -0.077742 0.004325 -0.050593 -0.029143 0.092342 0.143692 0.034466 0.070903 0.052864 -0.064541 -0.114429 -0.103765 0.041973 0.060713 0.214726 -0.012535 0.093140 -0.136414 0.143064 -0.275704 -0.162357 0.165189 0.152250 -0.053857 -0.003400 -0.207082 0.099243 0.132566 0.045202 -0.113948 0.047849 0.036292 -0.151960 -0.159010 0.016823 0.056937 0.170810 0.044036 0.019023 -0.251244 -0.129792 -0.115496 -0.001056 -0.024191 0.075273 0.073814 -0.085139 -0.136422 0.126371 0.100648 -0.214174 0.038425 -0.038362 -0.039366 -0.093891 0.130402 -0.022995 0.104339 0.090653 -0.029845 -0.059169 0.101584 0.049105 0.083638 0.077820 0.034783 -0.196618 -0.045670 -0.250623 0.007031 0.250771 -0.103096 -0.052334 -0.067127 -0.115761 0.056351 0.245252 0.016271 -0.061667 -0.133342 0.242013 -0.223463 -0.002407 0.112771 -0.038470 -0.271941 -0.039719 -0.134142 -0.031153 0.041278 0.025756 0.176120 0.100517 -0.000619 -0.083646 0.058648 -0.081959 0.045194 -0.051637 0.004087 0.098155 -0.090318 0.177061 -0.068453 0.033031 -0.031330 -0.149569 -0.053902 -0.229770 -0.028904 0.171634 -0.016730 0.033103
3 -0.078779 -0.071198 0.068105 0.068359 0.044756 -0.119952 0.093805 0.053972 -0.025819 0.007222 0.011233 0.074268 0.049464 -0.266808 -0.073973 -0.100177 0.000278 -0.078495 -0.019743 0.062998 0.140178 0.014183 0.065135 0.049861 -0.016707 -0.082182 -0.091329 0.053760 0.090151 0.204532 -0.031673 0.065651 -0.137948 0.134781 -0.240251 -0.173853 0.173742 0.138853 -0.043489 -0.001388 -0.171228 0.043807 0.136654 0.097151 -0.132009 0.043152 0.041207 -0.133821 -0.127145 0.026430 0.012944 0.129084 0.041150 0.047566 -0.244377 -0.137099 -0.111543 0.018722 -0.020673 0.045674 0.091531 -0.081674 -0.100003 0.118030 0.067107 -0.151817 0.022640 -0.008957 -0.031019 -0.109456 0.071869 -0.007078 0.085657 0.050863 0.014684 -0.031378 0.112362 0.028261 0.078191 0.023696 0.018424 -0.174554 -0.044030 -0.190399 -0.022316 0.198504 -0.036656 -0.052601 -0.036016 -0.082153 0.065169 0.189992 0.014672 -0.071808 -0.155649 0.193531 -0.177966 -0.057186 0.104848 0.011046 -0.228624 -0.037464 -0.129411 -0.026079 0.014501 0.020317 0.162430 0.088691 -0.008140 -0.086463 0.048456 -0.056237 0.064386 -0.021764 -0.038187 0.083619 -0.077688 0.187554 -0.075041 -0.009907 -0.020319 -0.115897 -0.011533 -0.211777 -0.077081 0.115292 0.014944 0.070389
2 -0.072579 -0.089331 0.069307 0.070751 0.039444 -0.137066 0.096360 0.084916 -0.015982 0.006469 0.013418 0.084074 0.066669 -0.281441 -0.068914 -0.114822 -0.005290 -0.086280 -0.011543 0.061093 0.152580 0.008055 0.071008 0.045968 -0.011666 -0.072704 -0.096174 0.057496 0.106065 0.210090 -0.032867 0.059760 -0.144547 0.139035 -0.244279 -0.183689 0.182561 0.134752 -0.043295 0.001534 -0.162922 0.028480 0.143006 0.114391 -0.143032 0.045547 0.035785 -0.131110 -0.116464 0.022091 -0.007441 0.114808 0.051377 0.062568 -0.257644 -0.140828 -0.107291 0.027589 -0.021002 0.041067 0.101788 -0.083129 -0.088718 0.115822 0.057128 -0.129750 0.016913 -0.002676 -0.034788 -0.114871 0.048576 -0.001912 0.087800 0.035594 0.023375 -0.018933 0.112722 0.023222 0.075852 0.004484 0.013749 -0.182023 -0.047774 -0.173211 -0.030544 0.189335 -0.012453 -0.057273 -0.020959 -0.075599 0.076293 0.177161 0.011941 -0.089256 -0.167319 0.179814 -0.170343 -0.088870 0.101551 0.030956 -0.221427 -0.043006 -0.128432 -0.022109 0.006444 0.009623 0.169925 0.094023 -0.013642 -0.091917 0.040263 -0.044281 0.078978 -0.013724 -0.064431 0.077646 -0.070766 0.193095 -0.087530 -0.033396 -0.012941 -0.103960 0.006018 -0.215777 -0.093735 0.100615 0.028826 0.081222
32 -0.090506 -0.071029 0.063373 0.066786 0.049520 -0.119757 0.098495 0.033978 -0.032050 0.006668 0.006867 0.077389 0.047800 -0.268722 -0.085510 -0.091441 0.003988 -0.081014 -0.021954 0.080635 0.150292 0.020598 0.066252 0.052004 -0.035362 -0.097550 -0.102957 0.052115 0.081981 0.210713 -0.024714 0.075465 -0.132514 0.137167 -0.266779 -0.180335 0.182391 0.157696 -0.051825 -0.008242 -0.194735 0.059113 0.137446 0.084524 -0.136625 0.047691 0.045761 -0.137236 -0.137277 0.019345 0.020160 0.151635 0.043857 0.038167 -0.255449 -0.144067 -0.115803 0.009985 -0.023499 0.052860 0.093139 -0.086214 -0.111112 0.133215 0.071273 -0.176355 0.021007 -0.012866 -0.038335 -0.116916 0.083425 -0.007058 0.094065 0.059900 0.001140 -0.041480 0.106186 0.039607 0.077563 0.038135 0.018953 -0.193694 -0.038044 -0.213885 -0.018704 0.223578 -0.052185 -0.055936 -0.044497 -0.100711 0.067329 0.214496 0.021471 -0.073168 -0.151009 0.212224 -0.194919 -0.047965 0.108974 -0.006924 -0.251261 -0.039465 -0.143591 -0.028034 0.026002 0.030203 0.180091 0.094563 -0.009492 -0.085704 0.053931 -0.067399 0.064787 -0.024243 -0.026221 0.090705 -0.080266 0.191753 -0.069408 -0.003322 -0.022508 -0.126447 -0.026148 -0.219651 -0.065271 0.130284 -0.002511 0.063394
4 -0.060986 -0.107658 0.062177 0.083918 0.026917 -0.150678 0.094693 0.125020 0.021342 0.005706 0.025347 0.094146 0.076230 -0.268950 -0.048574 -0.118571 -0.008324 -0.112446 -0.008220 0.048449 0.154117 -0.014412 0.065498 0.035441 0.024368 -0.057142 -0.091693 0.053686 0.119362 0.197662 -0.043969 0.041662 -0.134653 0.120883 -0.221948 -0.191974 0.189961 0.134989 -0.047061 0.001777 -0.143546 -0.005984 0.148236 0.145815 -0.151874 0.042185 0.046877 -0.119110 -0.092196 0.027689 -0.037742 0.098468 0.050256 0.070178 -0.244725 -0.143007 -0.104080 0.036777 -0.000828 0.011751 0.126279 -0.086269 -0.061064 0.115810 0.038523 -0.090925 -0.002803 0.018069 -0.023388 -0.124189 0.013751 0.008810 0.072106 0.008860 0.057706 -0.000843 0.112500 0.016293 0.065393 -0.027733 0.006080 -0.166796 -0.038286 -0.131310 -0.051874 0.143174 0.038024 -0.061783 0.001644 -0.048498 0.081042 0.137563 0.011927 -0.085637 -0.170838 0.153685 -0.133780 -0.128325 0.100715 0.058008 -0.193799 -0.037083 -0.125396 -0.008067 -0.017951 0.006146 0.152729 0.083345 -0.017284 -0.090343 0.045582 -0.024577 0.092476 0.005462 -0.088430 0.074824 -0.063484 0.200212 -0.094883 -0.060942 0.003087 -0.075704 0.038176 -0.211266 -0.138891 0.066969 0.049864 0.112163
24 -0.084304 -0.064009 0.066153 0.069820 0.050564 -0.116073 0.094754 0.032452 -0.029109 0.007991 0.008896 0.072256 0.048019 -0.265467 -0.083903 -0.092294 0.003830 -0.076424 -0.019580 0.077457 0.145956 0.019363 0.069080 0.055021 -0.030353 -0.093481 -0.098522 0.043282 0.074093 0.209443 -0.025233 0.074334 -0.133639 0.128215 -0.253914 -0.172366 0.175588 0.145398 -0.050753 -0.010239 -0.186749 0.064497 0.131966 0.080734 -0.127687 0.048602 0.040048 -0.130884 -0.129690 0.020789 0.028088 0.148359 0.038321 0.038116 -0.238157 -0.130943 -0.106495 0.010393 -0.022784 0.051411 0.085912 -0.083828 -0.105999 0.125039 0.070034 -0.174190 0.021669 -0.014327 -0.037786 -0.105080 0.087502 -0.008660 0.085732 0.062759 0.001662 -0.043158 0.096964 0.035080 0.075554 0.043358 0.021672 -0.177998 -0.037061 -0.202767 -0.016697 0.208394 -0.058896 -0.048967 -0.043700 -0.093583 0.059972 0.204365 0.021272 -0.065203 -0.140570 0.209852 -0.185259 -0.038013 0.106643 -0.009918 -0.244184 -0.030701 -0.130092 -0.024224 0.022287 0.029723 0.169478 0.092249 -0.006113 -0.078368 0.055560 -0.066774 0.059084 -0.027091 -0.027572 0.084949 -0.079358 0.179470 -0.066463 0.004733 -0.021714 -0.125768 -0.026147 -0.219624 -0.059239 0.134789 0.000606 0.060713
14 -0.077012 -0.095932 0.070596 0.073650 0.041624 -0.136950 0.098557 0.081599 -0.008931 0.008488 0.011401 0.087993 0.061320 -0.280293 -0.067545 -0.108994 -0.000173 -0.093893 -0.014078 0.060328 0.158713 0.007413 0.070640 0.048777 -0.007573 -0.077860 -0.094316 0.056679 0.097714 0.215645 -0.031543 0.061553 -0.142208 0.137140 -0.245038 -0.190148 0.183995 0.142425 -0.051817 -0.002015 -0.173639 0.028554 0.147219 0.119176 -0.145160 0.049978 0.046152 -0.129812 -0.117116 0.031783 -0.011105 0.127967 0.049533 0.057909 -0.258542 -0.148451 -0.116608 0.029948 -0.015316 0.034995 0.109056 -0.090538 -0.086995 0.120231 0.055212 -0.134149 0.017131 -0.004297 -0.031536 -0.121776 0.048486 0.000808 0.080804 0.042368 0.031809 -0.018894 0.112384 0.024317 0.074682 -0.000821 0.010719 -0.181346 -0.040525 -0.171093 -0.039104 0.190577 -0.012980 -0.061726 -0.021281 -0.076344 0.076864 0.177465 0.016141 -0.081923 -0.168184 0.191341 -0.172523 -0.087535 0.113221 0.030956 -0.231681 -0.040906 -0.136877 -0.017651 0.000613 0.013939 0.173288 0.095359 -0.015750 -0.090582 0.042737 -0.048085 0.077042 -0.012244 -0.057096 0.080393 -0.075480 0.195501 -0.089334 -0.031207 -0.010662 -0.102828 0.009056 -0.221083 -0.099835 0.100336 0.024204 0.085850
28 -0.084216 -0.077070 0.067796 0.069178 0.045064 -0.117695 0.095474 0.045606 -0.024219 0.005875 0.012569 0.078972 0.049019 -0.256668 -0.077611 -0.094569 -0.000087 -0.085341 -0.014706 0.074024 0.142932 0.011877 0.067508 0.045992 -0.024711 -0.084778 -0.099498 0.046540 0.086196 0.203738 -0.026295 0.069467 -0.125730 0.130318 -0.246914 -0.177885 0.177480 0.146615 -0.047815 -0.004847 -0.177947 0.043873 0.134392 0.091610 -0.134215 0.046481 0.037888 -0.131870 -0.128433 0.021576 0.007806 0.139263 0.045147 0.035734 -0.238149 -0.136482 -0.111811 0.011912 -0.022052 0.045289 0.095325 -0.087521 -0.094911 0.127542 0.066712 -0.158781 0.017618 -0.008221 -0.037402 -0.114239 0.071486 -0.004077 0.080665 0.048739 0.011887 -0.033528 0.101054 0.036990 0.068343 0.029652 0.014641 -0.180327 -0.036012 -0.189997 -0.022947 0.201974 -0.036277 -0.051787 -0.035524 -0.085858 0.068011 0.190385 0.017448 -0.069480 -0.142274 0.193515 -0.177931 -0.054783 0.107919 0.000262 -0.234014 -0.032470 -0.137038 -0.022825 0.019097 0.026505 0.170602 0.094047 -0.006376 -0.086633 0.050989 -0.055003 0.062792 -0.021795 -0.035489 0.082560 -0.076695 0.181115 -0.073973 -0.014431 -0.016898 -0.116795 -0.012898 -0.213192 -0.079737 0.116592 0.009463 0.067318
7 -0.029799 -0.186886 0.050782 0.115633 -0.011179 -0.192455 0.123527 0.238274 0.104547 0.008594 0.038810 0.130834 0.102159 -0.287282 -0.003142 -0.150760 -0.018725 -0.178472 -0.006111 0.009789 0.174342 -0.065116 0.075814 0.023639 0.106913 -0.036684 -0.092449 0.043854 0.157460 0.204472 -0.056876 0.006264 -0.140916 0.101871 -0.203117 -0.230696 0.214604 0.128906 -0.064612 -0.007800 -0.115016 -0.075904 0.173613 0.228816 -0.201685 0.049997 0.076950 -0.099158 -0.032142 0.055627 -0.124920 0.074028 0.054418 0.105292 -0.254577 -0.169714 -0.110898 0.077470 0.044126 -0.033196 0.177291 -0.093280 -0.001911 0.120788 -0.014844 -0.010225 -0.026040 0.065578 -0.008486 -0.162763 -0.075210 0.034286 0.036306 -0.036394 0.131209 0.053369 0.122033 -0.011815 0.060477 -0.132354 -0.023080 -0.136453 -0.029024 -0.038148 -0.109548 0.057579 0.145593 -0.071001 0.053523 -0.000075 0.122942 0.068722 0.023555 -0.093810 -0.212124 0.116126 -0.060972 -0.245794 0.113315 0.143764 -0.147715 -0.038283 -0.147739 -0.000714 -0.070912 -0.023365 0.149279 0.076753 -0.026323 -0.092444 0.038543 0.033632 0.140828 0.037645 -0.170915 0.066658 -0.046233 0.237011 -0.137693 -0.136925 0.030276 -0.012127 0.139350 -0.218737 -0.252213 -0.009054 0.111884 0.191171
30 -0.084377 -0.055420 0.060152 0.066147 0.050607 -0.102775 0.096289 0.010627 -0.042673 0.008422 0.000628 0.070607 0.037332 -0.261782 -0.090152 -0.085694 0.003650 -0.067017 -0.028705 0.086551 0.143047 0.023445 0.072008 0.048536 -0.042065 -0.105038 -0.098104 0.043089 0.065383 0.211913 -0.017902 0.078758 -0.133864 0.133465 -0.265234 -0.164613 0.170347 0.151355 -0.048465 -0.010112 -0.195600 0.077796 0.134019 0.070379 -0.122027 0.046096 0.039391 -0.146130 -0.143674 0.022726 0.038806 0.156703 0.042345 0.024273 -0.240462 -0.132378 -0.116920 0.008748 -0.019323 0.060331 0.081415 -0.086306 -0.114694 0.123443 0.087922 -0.188258 0.027881 -0.026895 -0.035552 -0.104056 0.105819 -0.014706 0.095696 0.073014 -0.009933 -0.051242 0.104156 0.045543 0.078837 0.058174 0.020425 -0.188010 -0.045201 -0.224593 -0.005818 0.231053 -0.078975 -0.051217 -0.054867 -0.103525 0.062049 0.219822 0.019424 -0.059154 -0.140933 0.224482 -0.204275 -0.018748 0.110577 -0.020731 -0.249057 -0.036402 -0.134741 -0.035677 0.027913 0.024392 0.172279 0.097036 -0.010245 -0.081348 0.051365 -0.075707 0.049580 -0.041091 -0.008580 0.091324 -0.086634 0.180893 -0.070794 0.022728 -0.030342 -0.133670 -0.038062 -0.222248 -0.048298 0.151959 0.000570 0.050480
9 -0.073345 -0.078520 0.058452 0.070857 0.039168 -0.124015 0.090699 0.070104 -0.006057 0.006967 0.015046 0.083974 0.057026 -0.262634 -0.066850 -0.101642 -0.006915 -0.079790 -0.017625 0.062625 0.137829 0.008907 0.068438 0.037593 -0.010754 -0.071998 -0.090152 0.044058 0.091037 0.199042 -0.030548 0.063553 -0.134850 0.124905 -0.226636 -0.174942 0.177789 0.135978 -0.049154 0.001912 -0.166340 0.031317 0.138869 0.108327 -0.136566 0.039877 0.041494 -0.129666 -0.114765 0.019567 -0.004907 0.121973 0.043027 0.050754 -0.233552 -0.137486 -0.108644 0.020694 -0.013036 0.030208 0.100840 -0.081121 -0.091550 0.114431 0.062308 -0.136211 0.014751 -0.005425 -0.029079 -0.107300 0.058329 -0.001313 0.086694 0.037763 0.026735 -0.024633 0.103748 0.031188 0.068539 0.015436 0.018209 -0.172703 -0.044042 -0.178526 -0.031505 0.179065 -0.017629 -0.055675 -0.028029 -0.070807 0.070970 0.172617 0.018796 -0.069812 -0.156248 0.176335 -0.162816 -0.073172 0.101858 0.024168 -0.222048 -0.041224 -0.129700 -0.020324 0.005903 0.013673 0.157155 0.091009 -0.017247 -0.089540 0.051194 -0.048500 0.074540 -0.018549 -0.050595 0.079116 -0.077638 0.194340 -0.084268 -0.016231 -0.014127 -0.106761 -0.000100 -0.209621 -0.093067 0.109043 0.022714 0.080523
6 -0.035710 -0.176521 0.055946 0.116065 -0.002677 -0.183725 0.120440 0.219594 0.088617 0.008690 0.040247 0.123326 0.092375 -0.277571 -0.008847 -0.144275 -0.019088 -0.169408 -0.001845 0.012229 0.165869 -0.058568 0.071997 0.018520 0.093685 -0.040021 -0.085442 0.040593 0.150378 0.205570 -0.055287 0.003558 -0.132191 0.104943 -0.198962 -0.219705 0.211336 0.135157 -0.065210 -0.010069 -0.114833 -0.062778 0.170559 0.207814 -0.195874 0.049247 0.074685 -0.103929 -0.037896 0.054216 -0.109610 0.078141 0.048804 0.094159 -0.242422 -0.167753 -0.108432 0.071213 0.037088 -0.033323 0.169651 -0.088785 -0.009915 0.117186 -0.007616 -0.028076 -0.027420 0.053820 -0.015199 -0.157948 -0.056782 0.026689 0.039106 -0.024931 0.121774 0.044041 0.120384 -0.006101 0.057924 -0.112514 -0.023881 -0.137049 -0.027173 -0.050996 -0.095091 0.066602 0.133799 -0.070862 0.046649 -0.010560 0.115958 0.079343 0.023064 -0.085589 -0.200866 0.119832 -0.071260 -0.227438 0.116242 0.127668 -0.147146 -0.040699 -0.141163 -0.000815 -0.065158 -0.013151 0.151593 0.081910 -0.025602 -0.092512 0.040722 0.023844 0.133891 0.036298 -0.154088 0.072399 -0.046228 0.229680 -0.127978 -0.129232 0.028256 -0.028464 0.125416 -0.223758 -0.235751 0.006412 0.102454 0.171548
8 -0.067522 -0.107622 0.067047 0.079214 0.029014 -0.145261 0.098839 0.107164 0.007674 0.009838 0.017965 0.092263 0.068745 -0.275268 -0.052856 -0.119884 -0.007148 -0.101307 -0.006513 0.055348 0.154839 -0.005893 0.067732 0.037893 0.010343 -0.059881 -0.091344 0.057711 0.111263 0.205562 -0.042024 0.051964 -0.137496 0.133135 -0.233703 -0.192374 0.191554 0.135756 -0.043929 0.003493 -0.155715 0.009132 0.142919 0.135193 -0.149063 0.049896 0.041646 -0.124432 -0.104398 0.029121 -0.031842 0.108651 0.056215 0.066252 -0.255955 -0.145487 -0.112268 0.030151 -0.013110 0.020930 0.117602 -0.091612 -0.073918 0.120724 0.047252 -0.113792 0.009708 0.006790 -0.027676 -0.124231 0.026021 0.001078 0.076656 0.021076 0.044725 -0.006046 0.111979 0.017415 0.070939 -0.016600 0.010393 -0.177441 -0.043987 -0.152307 -0.050207 0.168019 0.018534 -0.060261 -0.008263 -0.063955 0.084517 0.153057 0.014631 -0.086041 -0.171510 0.162324 -0.151854 -0.117185 0.101797 0.045598 -0.206535 -0.044311 -0.136175 -0.015567 -0.003517 0.004923 0.164831 0.083783 -0.016397 -0.095160 0.038022 -0.032200 0.089834 -0.003186 -0.083413 0.080598 -0.070152 0.201385 -0.096313 -0.052221 -0.006335 -0.092254 0.030724 -0.216018 -0.120072 0.075925 0.039640 0.098378
26 -0.088158 -0.065340 0.066309 0.065880 0.053340 -0.119681 0.099530 0.026625 -0.035219 0.003636 0.006281 0.069305 0.047629 -0.267801 -0.088102 -0.086657 0.009149 -0.080778 -0.021773 0.083792 0.152788 0.020978 0.072652 0.056967 -0.036469 -0.102523 -0.106163 0.043236 0.073102 0.214649 -0.019676 0.076057 -0.129682 0.128750 -0.269653 -0.182835 0.179112 0.154347 -0.055825 -0.009903 -0.194851 0.057682 0.130935 0.077746 -0.133204 0.054553 0.041281 -0.136078 -0.138669 0.026028 0.029053 0.158524 0.040795 0.028880 -0.248782 -0.139899 -0.111222 0.009264 -0.026407 0.057010 0.090492 -0.088683 -0.108443 0.137290 0.074745 -0.181156 0.026291 -0.018675 -0.039044 -0.113628 0.090964 -0.008956 0.087345 0.064488 0.002951 -0.049662 0.096282 0.039892 0.075425 0.040127 0.015777 -0.188309 -0.036278 -0.213129 -0.014833 0.224911 -0.062209 -0.054266 -0.048176 -0.102142 0.066616 0.215642 0.024772 -0.062876 -0.143765 0.216571 -0.198672 -0.041009 0.119297 -0.013580 -0.256285 -0.035174 -0.142588 -0.022136 0.028650 0.033458 0.182831 0.097848 -0.000777 -0.080953 0.052938 -0.069246 0.062665 -0.024257 -0.022175 0.089873 -0.078071 0.182002 -0.063563 -0.005105 -0.022135 -0.128674 -0.031112 -0.226837 -0.063523 0.140210 -0.005502 0.055243
25 -0.093272 -0.072512 0.063568 0.066874 0.046414 -0.123100 0.095613 0.034565 -0.023024 0.003516 0.006828 0.069357 0.047746 -0.262974 -0.085266 -0.096907 0.009708 -0.084547 -0.015169 0.082534 0.151266 0.015693 0.072474 0.057222 -0.027509 -0.099954 -0.098921 0.043618 0.074952 0.211110 -0.021616 0.071889 -0.130096 0.127028 -0.264993 -0.178613 0.174172 0.154904 -0.054739 -0.009760 -0.190421 0.055750 0.130345 0.080737 -0.129744 0.052806 0.044437 -0.128451 -0.127638 0.023606 0.016668 0.151805 0.044113 0.037115 -0.250121 -0.139058 -0.106497 0.007090 -0.024831 0.057734 0.087465 -0.082997 -0.101773 0.130993 0.065741 -0.174412 0.022206 -0.009702 -0.041460 -0.111846 0.082350 -0.011079 0.088160 0.063297 0.003294 -0.046499 0.094633 0.038756 0.079278 0.032777 0.017088 -0.187252 -0.036727 -0.210244 -0.019463 0.211399 -0.051603 -0.057688 -0.047151 -0.099715 0.063574 0.204508 0.024204 -0.070344 -0.147989 0.210200 -0.189940 -0.047380 0.114587 -0.002764 -0.253015 -0.031428 -0.143352 -0.021782 0.026790 0.029365 0.176572 0.095684 -0.001064 -0.084770 0.052233 -0.062707 0.065495 -0.025070 -0.035099 0.083956 -0.072840 0.181247 -0.067151 -0.007583 -0.018584 -0.117437 -0.025242 -0.222804 -0.071529 0.134204 -0.002855 0.062116
20 -0.064719 -0.112239 0.062935 0.083721 0.024792 -0.151415 0.105046 0.116646 0.012656 0.007206 0.017348 0.094040 0.075305 -0.278514 -0.054125 -0.119180 -0.012550 -0.107675 -0.013384 0.047307 0.159588 -0.012375 0.072533 0.040222 0.018941 -0.062159 -0.088918 0.051489 0.115548 0.204565 -0.043744 0.047348 -0.138798 0.127052 -0.229932 -0.193334 0.194580 0.135105 -0.053175 -0.006206 -0.159004 0.003776 0.147781 0.141095 -0.153998 0.047621 0.052919 -0.123478 -0.096981 0.029073 -0.038193 0.111190 0.052967 0.062098 -0.252463 -0.148518 -0.111699 0.033167 -0.006085 0.019920 0.127460 -0.087157 -0.068133 0.121068 0.042077 -0.107355 0.004954 0.014587 -0.027499 -0.122798 0.021256 0.006969 0.073545 0.019342 0.051478 -0.001062 0.117585 0.015969 0.073123 -0.021718 0.006145 -0.173756 -0.039915 -0.149758 -0.049928 0.161694 0.020949 -0.060193 -0.008034 -0.055772 0.088394 0.151726 0.016743 -0.084332 -0.173233 0.165421 -0.141435 -0.121810 0.103966 0.057419 -0.206663 -0.043683 -0.137353 -0.012536 -0.012893 0.007525 0.161579 0.087230 -0.013835 -0.088628 0.040966 -0.027512 0.090651 0.000142 -0.084767 0.075990 -0.065906 0.207370 -0.097073 -0.052893 -0.003175 -0.079738 0.035363 -0.218159 -0.127840 0.076727 0.040636 0.107333
11 -0.034521 -0.193161 0.057313 0.119168 -0.008051 -0.201246 0.119304 0.248695 0.106095 0.006960 0.040604 0.132642 0.103461 -0.285892 0.000603 -0.159335 -0.022891 -0.180395 -0.001178 0.003709 0.177849 -0.066906 0.077709 0.021224 0.106966 -0.031937 -0.088891 0.049000 0.161945 0.204477 -0.060655 0.001307 -0.138204 0.101803 -0.195347 -0.228495 0.223544 0.133247 -0.062207 -0.001541 -0.105170 -0.079581 0.177657 0.233208 -0.205343 0.051604 0.078256 -0.094810 -0.034860 0.058200 -0.126998 0.068511 0.055947 0.106611 -0.255651 -0.176621 -0.110874 0.084125 0.035917 -0.039083 0.180711 -0.097387 0.003237 0.121438 -0.019332 -0.005372 -0.033892 0.063454 -0.004633 -0.165385 -0.079695 0.032591 0.035205 -0.043187 0.140369 0.057319 0.126853 -0.018486 0.058649 -0.136100 -0.022642 -0.136681 -0.029887 -0.039304 -0.115709 0.057484 0.159387 -0.072933 0.059900 0.002555 0.119802 0.059880 0.020998 -0.093564 -0.212382 0.105526 -0.058579 -0.250994 0.113440 0.152510 -0.139951 -0.036186 -0.145460 0.003129 -0.074523 -0.022185 0.154105 0.072659 -0.027265 -0.097875 0.035666 0.035356 0.139996 0.042209 -0.175089 0.062917 -0.049303 0.243335 -0.137357 -0.148492 0.034308 -0.016455 0.145274 -0.225483 -0.256085 -0.015523 0.109482 0.193036
5 -0.039760 -0.178330 0.054221 0.111611 0.001955 -0.190309 0.123065 0.214035 0.090549 0.005158 0.040852 0.125624 0.093607 -0.283309 -0.011923 -0.150926 -0.018217 -0.170953 -0.004818 0.018815 0.174241 -0.050510 0.070950 0.029764 0.091045 -0.042930 -0.089121 0.044321 0.151424 0.206431 -0.060044 0.008522 -0.141821 0.111865 -0.206196 -0.229365 0.215881 0.137025 -0.063142 -0.005939 -0.117312 -0.064383 0.169468 0.213484 -0.199709 0.049501 0.072901 -0.105075 -0.045694 0.049936 -0.108486 0.083747 0.057933 0.093871 -0.252953 -0.171710 -0.108284 0.070508 0.032843 -0.030104 0.166258 -0.096369 -0.011571 0.123718 -0.008158 -0.030159 -0.018878 0.052748 -0.013847 -0.162662 -0.057622 0.026670 0.042787 -0.029828 0.119922 0.038051 0.119161 -0.012557 0.059112 -0.116148 -0.021828 -0.147401 -0.032750 -0.060680 -0.100755 0.074310 0.129254 -0.066866 0.047930 -0.013555 0.118756 0.084831 0.022350 -0.091747 -0.209913 0.126663 -0.084686 -0.228252 0.120976 0.133433 -0.164897 -0.039879 -0.147627 -0.004654 -0.064489 -0.014629 0.161260 0.082603 -0.029963 -0.096762 0.036994 0.019259 0.137061 0.032830 -0.158786 0.073838 -0.045361 0.235960 -0.124334 -0.127242 0.026289 -0.027320 0.119979 -0.228321 -0.234542 0.011042 0.095858 0.179623
31 -0.078230 -0.071899 0.069080 0.072722 0.046367 -0.125958 0.094038 0.047541 -0.027282 0.008199 0.013908 0.083990 0.056807 -0.275588 -0.075963 -0.103762 -0.008089 -0.076812 -0.018626 0.071220 0.150736 0.012496 0.068152 0.050687 -0.023143 -0.085306 -0.094507 0.052638 0.088721 0.211713 -0.030444 0.075307 -0.143351 0.139696 -0.248907 -0.174542 0.177435 0.143373 -0.045177 -0.006677 -0.179573 0.054321 0.140124 0.091532 -0.134849 0.046473 0.036618 -0.141752 -0.129211 0.024126 0.008607 0.138864 0.045456 0.042685 -0.245782 -0.139285 -0.110685 0.014378 -0.021631 0.042347 0.099611 -0.085746 -0.106232 0.115067 0.068408 -0.158326 0.016809 -0.016395 -0.035209 -0.106486 0.076124 -0.010889 0.090784 0.052917 0.013214 -0.032458 0.112607 0.032649 0.079283 0.030872 0.020686 -0.182854 -0.045862 -0.200589 -0.019604 0.203049 -0.044312 -0.059133 -0.036727 -0.088468 0.064469 0.199524 0.021219 -0.074120 -0.159031 0.201340 -0.186608 -0.056164 0.106752 0.011366 -0.240273 -0.039471 -0.131708 -0.027799 0.013019 0.018282 0.168705 0.097516 -0.008992 -0.087754 0.046821 -0.062294 0.062985 -0.029912 -0.036732 0.088500 -0.082760 0.193739 -0.084855 -0.003946 -0.020953 -0.121583 -0.015188 -0.224538 -0.077309 0.126959 0.009536 0.068221
29 -0.081606 -0.083135 0.063353 0.071119 0.045491 -0.132459 0.097709 0.061415 -0.015444 0.007455 0.014427 0.086290 0.054763 -0.274720 -0.073106 -0.105117 -0.004844 -0.090590 -0.014319 0.069145 0.153924 0.007727 0.065965 0.046420 -0.019075 -0.085693 -0.098214 0.048202 0.096610 0.212532 -0.026892 0.064555 -0.134098 0.134736 -0.254306 -0.183110 0.186348 0.146993 -0.048158 -0.006009 -0.172758 0.041809 0.136481 0.098951 -0.137433 0.051225 0.040952 -0.133741 -0.125054 0.024234 0.001056 0.132203 0.045723 0.047303 -0.255859 -0.138012 -0.107797 0.022200 -0.016390 0.043436 0.102841 -0.090367 -0.097642 0.125111 0.060629 -0.152023 0.014789 -0.008579 -0.030888 -0.112315 0.061198 -0.005052 0.083539 0.049090 0.020163 -0.023765 0.111858 0.031010 0.077098 0.016239 0.011479 -0.181025 -0.038658 -0.192158 -0.027605 0.199489 -0.024227 -0.061318 -0.029942 -0.087598 0.074895 0.187257 0.016994 -0.074763 -0.156129 0.198202 -0.181123 -0.069514 0.109219 0.013788 -0.237193 -0.037330 -0.138165 -0.020566 0.012953 0.018428 0.167971 0.090110 -0.009483 -0.087188 0.050328 -0.051693 0.070373 -0.020511 -0.051889 0.082019 -0.077149 0.190565 -0.078047 -0.021643 -0.015909 -0.113436 -0.006621 -0.224828 -0.086403 0.115123 0.015124 0.073489
21 -0.079785 -0.081736 0.064120 0.071847 0.036811 -0.131609 0.098636 0.065228 -0.008822 0.011120 0.014385 0.086251 0.058296 -0.278018 -0.070718 -0.103775 -0.004188 -0.092683 -0.015572 0.068022 0.155357 0.004756 0.068850 0.049007 -0.009402 -0.086469 -0.096678 0.047779 0.094970 0.211793 -0.027409 0.063928 -0.138457 0.132395 -0.251998 -0.186945 0.181705 0.150436 -0.049178 -0.004046 -0.180440 0.043121 0.141920 0.104755 -0.147271 0.048924 0.048012 -0.134100 -0.116045 0.026074 0.001867 0.137430 0.048376 0.045942 -0.250674 -0.142431 -0.112395 0.018209 -0.014128 0.040506 0.103173 -0.086110 -0.092081 0.127339 0.065462 -0.148978 0.015072 -0.007751 -0.034493 -0.121874 0.065512 -0.007887 0.086001 0.047354 0.026366 -0.026734 0.107618 0.027362 0.077077 0.015380 0.012150 -0.179159 -0.042299 -0.189746 -0.034099 0.188570 -0.024032 -0.060171 -0.025452 -0.083097 0.078103 0.189781 0.017335 -0.070394 -0.162602 0.194322 -0.174721 -0.075631 0.111376 0.019982 -0.232889 -0.040342 -0.137924 -0.019639 0.010349 0.018497 0.168174 0.090391 -0.012479 -0.090858 0.054935 -0.046021 0.073594 -0.016926 -0.053168 0.090223 -0.078983 0.196758 -0.084069 -0.016700 -0.014009 -0.108166 0.001757 -0.224249 -0.093131 0.112267 0.024082 0.077298
16 -0.083451 -0.066445 0.064898 0.068237 0.047164 -0.116370 0.098575 0.035279 -0.029375 0.008247 0.005257 0.079364 0.045055 -0.262679 -0.077151 -0.095458 -0.004748 -0.080624 -0.024658 0.072688 0.146025 0.017020 0.072454 0.047457 -0.027969 -0.093327 -0.096910 0.044665 0.078863 0.206317 -0.025248 0.075793 -0.136381 0.130482 -0.253989 -0.171841 0.178956 0.143663 -0.051082 -0.010069 -0.187910 0.063496 0.138400 0.083940 -0.128487 0.045552 0.042879 -0.136293 -0.135390 0.027920 0.023318 0.146084 0.044073 0.037816 -0.244201 -0.137072 -0.113460 0.014613 -0.018004 0.047146 0.094152 -0.089700 -0.108467 0.120389 0.076433 -0.170240 0.022637 -0.013992 -0.035337 -0.110471 0.087974 -0.014449 0.090862 0.058463 0.008378 -0.039083 0.110515 0.034965 0.075993 0.038510 0.021715 -0.184798 -0.040459 -0.209864 -0.016295 0.216426 -0.052028 -0.052076 -0.040554 -0.092999 0.063399 0.207479 0.015331 -0.065246 -0.150498 0.212310 -0.186871 -0.046470 0.108286 -0.006127 -0.239554 -0.035356 -0.131517 -0.030661 0.017969 0.019039 0.167995 0.093460 -0.005464 -0.082992 0.050221 -0.058427 0.057068 -0.028051 -0.027724 0.091570 -0.083015 0.191899 -0.076639 -0.001160 -0.023102 -0.122887 -0.022424 -0.225502 -0.066589 0.134525 0.007972 0.065946
19 -0.081182 -0.060848 0.068021 0.063838 0.050230 -0.109205 0.093742 0.021746 -0.034462 0.007930 0.003753 0.076307 0.041575 -0.265404 -0.085201 -0.087908 -0.003398 -0.075421 -0.021102 0.082775 0.147781 0.017707 0.069404 0.053936 -0.036824 -0.096647 -0.101780 0.045392 0.073887 0.211692 -0.020090 0.079547 -0.136807 0.131746 -0.262013 -0.171949 0.169091 0.151895 -0.047491 -0.005073 -0.192002 0.070039 0.136280 0.073884 -0.124074 0.049358 0.043716 -0.146095 -0.140612 0.024367 0.029760 0.151302 0.038604 0.031104 -0.243115 -0.134328 -0.117429 0.011777 -0.014746 0.054958 0.086147 -0.086255 -0.110448 0.125872 0.081445 -0.184333 0.029436 -0.022793 -0.038662 -0.109201 0.098278 -0.013116 0.094512 0.069317 -0.004558 -0.048551 0.110134 0.041945 0.075847 0.044472 0.021963 -0.185459 -0.043143 -0.221432 -0.014164 0.221820 -0.062282 -0.053357 -0.051700 -0.101230 0.063148 0.220295 0.022433 -0.063017 -0.151658 0.222993 -0.199036 -0.033987 0.111974 -0.013433 -0.248964 -0.036235 -0.137959 -0.032272 0.023451 0.023207 0.170868 0.096774 -0.007808 -0.086261 0.052748 -0.067305 0.056938 -0.038493 -0.017554 0.095662 -0.080976 0.189859 -0.077914 0.014826 -0.026070 -0.130761 -0.030802 -0.226424 -0.062604 0.143649 -0.000435 0.052061
23 -0.077190 -0.071762 0.059444 0.072602 0.043079 -0.118807 0.095132 0.054881 -0.017046 0.005446 0.009672 0.080622 0.051389 -0.269254 -0.075604 -0.094345 -0.004416 -0.079791 -0.018631 0.073007 0.146561 0.008947 0.064841 0.049085 -0.019527 -0.089195 -0.099919 0.042658 0.082910 0.210120 -0.026543 0.069301 -0.137111 0.131134 -0.252784 -0.178333 0.177693 0.141742 -0.053247 -0.004203 -0.177994 0.050445 0.140556 0.095152 -0.131357 0.044738 0.041982 -0.132184 -0.127995 0.024499 0.010786 0.136925 0.047565 0.038488 -0.246167 -0.142377 -0.114452 0.018550 -0.011741 0.040368 0.098142 -0.086463 -0.095685 0.121070 0.071475 -0.156818 0.021786 -0.008154 -0.030559 -0.107569 0.074125 -0.007137 0.090898 0.054076 0.010009 -0.030352 0.110497 0.032949 0.079804 0.025501 0.021983 -0.181734 -0.038555 -0.194702 -0.024776 0.202080 -0.038897 -0.055508 -0.036853 -0.087342 0.071279 0.196789 0.013566 -0.070884 -0.158979 0.200276 -0.178509 -0.062588 0.107462 0.014037 -0.235309 -0.039941 -0.130647 -0.028047 0.011197 0.012090 0.163250 0.090954 -0.007679 -0.084651 0.047022 -0.056491 0.065283 -0.028864 -0.041477 0.086418 -0.080811 0.192300 -0.081237 -0.008647 -0.014966 -0.110010 -0.010388 -0.221718 -0.079637 0.118302 0.015238 0.071132
15 -0.092630 -0.058654 0.069950 0.060135 0.055206 -0.109177 0.094603 0.017972 -0.041422 0.006537 0.008563 0.073176 0.045745 -0.270657 -0.086477 -0.093225 -0.002807 -0.069923 -0.024922 0.080065 0.151544 0.027007 0.069993 0.054790 -0.045345 -0.098416 -0.104262 0.049402 0.078638 0.211822 -0.023986 0.084659 -0.137001 0.140549 -0.264494 -0.173108 0.172186 0.150526 -0.042899 -0.001403 -0.198178 0.072948 0.134951 0.073469 -0.124720 0.050967 0.033003 -0.146739 -0.144628 0.016544 0.033571 0.151360 0.043672 0.036871 -0.254197 -0.138915 -0.117757 0.002401 -0.024755 0.063128 0.088114 -0.081592 -0.118493 0.121896 0.085805 -0.181082 0.029890 -0.024843 -0.035280 -0.101553 0.102536 -0.016735 0.101019 0.064821 -0.009626 -0.048602 0.109401 0.041640 0.076412 0.049842 0.025262 -0.189195 -0.045741 -0.229834 -0.012928 0.226110 -0.070959 -0.058560 -0.051448 -0.100358 0.064154 0.224407 0.021296 -0.072198 -0.153807 0.221879 -0.203113 -0.026830 0.110406 -0.010927 -0.253053 -0.039746 -0.137601 -0.028364 0.032115 0.022043 0.175463 0.098169 -0.007350 -0.091888 0.054433 -0.071887 0.054200 -0.039509 -0.021896 0.096058 -0.082740 0.189650 -0.075710 0.016502 -0.024309 -0.138027 -0.032357 -0.219695 -0.056195 0.145203 0.000156 0.052351
10 -0.074241 -0.086283 0.061713 0.073902 0.040975 -0.125237 0.097834 0.070663 -0.006922 0.004139 0.015652 0.086618 0.055574 -0.264286 -0.069182 -0.100913 -0.002860 -0.084943 -0.017405 0.064737 0.150689 0.004861 0.068859 0.046855 -0.012017 -0.079325 -0.091924 0.047295 0.093866 0.202262 -0.034164 0.058616 -0.133767 0.134068 -0.243797 -0.179772 0.182184 0.136929 -0.050623 -0.005577 -0.170199 0.032669 0.143398 0.110573 -0.134814 0.049017 0.046282 -0.130822 -0.111655 0.021622 -0.004918 0.126846 0.050851 0.048196 -0.246828 -0.137701 -0.108157 0.019036 -0.017030 0.037833 0.104874 -0.084688 -0.092912 0.119199 0.058983 -0.135775 0.012625 -0.007053 -0.033725 -0.115398 0.058387 -0.006536 0.086801 0.040457 0.027209 -0.020664 0.107780 0.026317 0.069602 0.010051 0.009929 -0.179016 -0.041130 -0.174070 -0.034449 0.186260 -0.020783 -0.060038 -0.025399 -0.077639 0.075962 0.177870 0.019848 -0.072588 -0.157123 0.186190 -0.167648 -0.081889 0.105502 0.026460 -0.223658 -0.040841 -0.132055 -0.020254 0.003721 0.012203 0.167652 0.093753 -0.015606 -0.085326 0.048940 -0.051151 0.076234 -0.018114 -0.052084 0.082758 -0.072792 0.196918 -0.087067 -0.026993 -0.013087 -0.107169 0.004061 -0.217077 -0.092103 0.104881 0.020726 0.082954
17 -0.037923 -0.180459 0.053750 0.116756 -0.008543 -0.190308 0.124882 0.220865 0.098277 0.012016 0.039426 0.129685 0.096073 -0.277362 -0.013002 -0.142282 -0.016698 -0.176898 -0.007666 0.018549 0.171538 -0.061489 0.078320 0.020869 0.098009 -0.040092 -0.090457 0.041462 0.151085 0.210163 -0.054161 0.007719 -0.134818 0.103507 -0.208593 -0.229870 0.216368 0.138365 -0.066452 -0.006283 -0.120194 -0.068778 0.167437 0.217358 -0.199289 0.048006 0.077734 -0.098921 -0.041197 0.056324 -0.113595 0.079983 0.052779 0.089995 -0.246816 -0.171984 -0.115274 0.078473 0.042090 -0.034266 0.170327 -0.094368 -0.007017 0.119434 -0.007689 -0.024096 -0.024035 0.054905 -0.010428 -0.156870 -0.062318 0.027378 0.041637 -0.029520 0.124840 0.047149 0.116143 -0.011653 0.062197 -0.121555 -0.020715 -0.141561 -0.024831 -0.051736 -0.106078 0.070397 0.135259 -0.072862 0.051496 -0.012180 0.114044 0.080584 0.022792 -0.083823 -0.207534 0.124516 -0.069285 -0.225244 0.121592 0.134481 -0.152899 -0.039231 -0.148668 0.000154 -0.063669 -0.017809 0.155554 0.076188 -0.030082 -0.088160 0.039180 0.023785 0.140160 0.036387 -0.156645 0.069707 -0.048397 0.237565 -0.129559 -0.131752 0.031565 -0.020008 0.127883 -0.220026 -0.241996 0.004518 0.100227 0.182196
27 -0.075587 -0.079346 0.059681 0.067392 0.042901 -0.119746 0.097262 0.055142 -0.019358 0.008471 0.008586 0.076817 0.049668 -0.259441 -0.073209 -0.098219 0.002546 -0.087068 -0.018462 0.065728 0.150158 0.010863 0.069739 0.051460 -0.017324 -0.091573 -0.099939 0.047325 0.081100 0.207234 -0.024181 0.063431 -0.133625 0.123085 -0.243871 -0.177297 0.171351 0.142895 -0.051588 -0.008996 -0.179044 0.048281 0.134257 0.093386 -0.131573 0.050534 0.047449 -0.130850 -0.121225 0.028916 0.012159 0.140147 0.040269 0.044505 -0.241763 -0.140424 -0.110491 0.019304 -0.009134 0.044580 0.093368 -0.079999 -0.096916 0.121048 0.066283 -0.154395 0.015511 -0.006676 -0.032697 -0.111791 0.067431 -0.003895 0.084149 0.048402 0.012694 -0.035454 0.106284 0.029078 0.073011 0.023292 0.012943 -0.176731 -0.038892 -0.186764 -0.029347 0.196063 -0.031294 -0.057428 -0.038110 -0.084411 0.065712 0.187846 0.019871 -0.067214 -0.155600 0.199489 -0.174438 -0.063712 0.112160 0.006208 -0.235627 -0.035248 -0.130347 -0.027148 0.015121 0.020292 0.169256 0.087285 -0.011382 -0.081205 0.052563 -0.053722 0.065875 -0.024870 -0.039349 0.084086 -0.077253 0.189415 -0.081643 -0.011648 -0.018488 -0.107942 -0.005651 -0.221113 -0.085339 0.121123 0.015496 0.071168
22 -0.059729 -0.120454 0.062105 0.086219 0.023522 -0.157717 0.101251 0.128676 0.022408 0.007567 0.021618 0.099834 0.078534 -0.280358 -0.044837 -0.124690 -0.013711 -0.117153 -0.005690 0.048452 0.160743 -0.016823 0.072871 0.037742 0.024006 -0.055767 -0.092255 0.048545 0.122835 0.207686 -0.043912 0.040848 -0.140181 0.124104 -0.226148 -0.200214 0.191598 0.135136 -0.052673 -0.004566 -0.144320 -0.008282 0.146703 0.151126 -0.157646 0.050804 0.047208 -0.116538 -0.086962 0.030820 -0.047344 0.102104 0.046921 0.069193 -0.246030 -0.149023 -0.106949 0.042499 0.001800 0.008501 0.130616 -0.086313 -0.060085 0.122750 0.034917 -0.094111 -0.003942 0.020525 -0.019535 -0.124606 0.009546 0.010199 0.070364 0.010070 0.064017 0.004459 0.112463 0.015127 0.072860 -0.035735 -0.000045 -0.166958 -0.035200 -0.138543 -0.058063 0.142050 0.042390 -0.065639 0.003335 -0.049998 0.090656 0.138244 0.016700 -0.088941 -0.177150 0.156319 -0.133579 -0.133823 0.108409 0.060697 -0.196787 -0.038860 -0.131967 -0.008966 -0.015869 0.007005 0.157981 0.085872 -0.016712 -0.091595 0.045753 -0.021723 0.097874 0.007880 -0.094841 0.074424 -0.067776 0.206391 -0.101519 -0.065756 0.003512 -0.077290 0.047319 -0.214860 -0.140357 0.064179 0.051506 0.113891
13 -0.053456 -0.140356 0.066091 0.092422 0.015759 -0.170835 0.111317 0.159665 0.042939 0.011536 0.025053 0.106005 0.088211 -0.292971 -0.038384 -0.136025 -0.014803 -0.134174 -0.008177 0.033777 0.171013 -0.026811 0.068915 0.036752 0.042164 -0.052409 -0.088315 0.058996 0.135512 0.211602 -0.053841 0.036058 -0.144387 0.122584 -0.224099 -0.213511 0.208200 0.140491 -0.052988 -0.002945 -0.139905 -0.025756 0.160777 0.177987 -0.173561 0.052643 0.058130 -0.115967 -0.082394 0.041460 -0.069631 0.100217 0.057568 0.086018 -0.264829 -0.163628 -0.117489 0.048651 0.008827 -0.002095 0.147358 -0.092259 -0.051350 0.119300 0.026151 -0.077794 -0.008428 0.027597 -0.018317 -0.144459 -0.014525 0.013806 0.065916 -0.004311 0.080952 0.011444 0.120400 0.004215 0.066291 -0.063351 -0.003232 -0.170923 -0.039579 -0.114582 -0.077142 0.131156 0.069898 -0.067006 0.011895 -0.035084 0.102533 0.122401 0.013787 -0.096855 -0.190355 0.145145 -0.120642 -0.171861 0.107231 0.087215 -0.187162 -0.041697 -0.140274 -0.009098 -0.032914 -0.006486 0.167993 0.083444 -0.021913 -0.099597 0.043394 -0.012737 0.109887 0.018613 -0.119292 0.070368 -0.064779 0.223956 -0.110103 -0.090268 0.009755 -0.058905 0.073502 -0.217294 -0.172270 0.048621 0.067260 0.139515
18 -0.066060 -0.101459 0.060376 0.076616 0.032248 -0.143874 0.093566 0.103783 0.009034 0.011849 0.016534 0.092912 0.072674 -0.271821 -0.056570 -0.116852 -0.008341 -0.098452 -0.013467 0.058519 0.156787 -0.005560 0.071949 0.041901 0.011519 -0.060989 -0.090113 0.053178 0.110136 0.204409 -0.039020 0.054315 -0.134825 0.130352 -0.229104 -0.191566 0.184982 0.136535 -0.047238 0.001604 -0.157994 0.014383 0.139881 0.128934 -0.149516 0.049050 0.041592 -0.121706 -0.099001 0.025160 -0.027686 0.107881 0.052476 0.064538 -0.245373 -0.139897 -0.107523 0.026349 -0.012447 0.020649 0.117174 -0.088838 -0.073784 0.117232 0.048884 -0.111507 0.006906 0.005684 -0.024224 -0.115666 0.026768 0.003181 0.079201 0.019154 0.046015 -0.006768 0.112221 0.021847 0.071701 -0.013926 0.004338 -0.168410 -0.036461 -0.154500 -0.048601 0.163930 0.015423 -0.059706 -0.014050 -0.058421 0.080112 0.150858 0.019410 -0.085009 -0.169745 0.164476 -0.149929 -0.104226 0.104163 0.042550 -0.207231 -0.037119 -0.130889 -0.013810 -0.004538 0.010972 0.157753 0.082707 -0.016442 -0.092127 0.040472 -0.038102 0.083267 -0.005163 -0.074145 0.073813 -0.069471 0.196255 -0.088182 -0.047983 -0.005742 -0.092338 0.023583 -0.213028 -0.114561 0.077419 0.031779 0.094733
12 -0.067325 -0.115985 0.063134 0.082693 0.025306 -0.150071 0.100582 0.113175 0.016783 0.010300 0.025338 0.099940 0.069949 -0.272993 -0.051352 -0.115884 -0.011232 -0.113372 -0.009242 0.046371 0.158325 -0.010080 0.071470 0.037276 0.017897 -0.068021 -0.091958 0.050932 0.114425 0.206679 -0.038309 0.047766 -0.140603 0.124895 -0.230505 -0.193479 0.191250 0.142839 -0.052234 -0.001844 -0.154349 0.003385 0.151880 0.140013 -0.159253 0.051466 0.053467 -0.123638 -0.099060 0.032232 -0.037387 0.114705 0.047964 0.061612 -0.252364 -0.152489 -0.109862 0.037721 -0.000585 0.018057 0.126935 -0.087412 -0.068532 0.124268 0.036418 -0.106215 0.004931 0.014220 -0.022748 -0.125705 0.024833 0.009170 0.071815 0.020230 0.055338 -0.004267 0.116675 0.020166 0.070039 -0.023300 0.002594 -0.167154 -0.040741 -0.143824 -0.055546 0.157187 0.027385 -0.061515 -0.006826 -0.059575 0.085651 0.152363 0.016920 -0.082388 -0.171246 0.164610 -0.138476 -0.127654 0.110481 0.053816 -0.208343 -0.041089 -0.136304 -0.013739 -0.013847 0.003860 0.163551 0.086578 -0.011985 -0.093636 0.041963 -0.027372 0.092704 0.002472 -0.084201 0.081756 -0.068413 0.209384 -0.100410 -0.060566 -0.002783 -0.084644 0.040317 -0.217594 -0.138952 0.076080 0.041369 0.110114
